<?xml version="1.0"?>
<opencv_storage>
<stage1>
  <maxWeakCount>6</maxWeakCount>
  <stageThreshold>7.6337069272994995e-02</stageThreshold>
  <weakClassifiers>
    <_>
      <internalNodes>
        0 -1 92215 2.7988897636532784e-03</internalNodes>
      <leafValues>
        -6.4665520191192627e-01 9.0407675504684448e-01</leafValues></_>
    <_>
      <internalNodes>
        0 -1 9864 2.1043086235295050e-05</internalNodes>
      <leafValues>
        6.2809765338897705e-01 -1.</leafValues></_>
    <_>
      <internalNodes>
        0 -1 108163 3.3284921664744616e-03</internalNodes>
      <leafValues>
        -6.4174890518188477e-01 9.4614440202713013e-01</leafValues></_>
    <_>
      <internalNodes>
        0 -1 68325 3.9306138642132282e-03</internalNodes>
      <leafValues>
        -5.4106342792510986e-01 9.6374595165252686e-01</leafValues></_>
    <_>
      <internalNodes>
        0 -1 69940 -1.0663216933608055e-02</internalNodes>
      <leafValues>
        7.0833492279052734e-01 -7.0386546850204468e-01</leafValues></_>
    <_>
      <internalNodes>
        0 -1 9225 -1.5239881351590157e-02</internalNodes>
      <leafValues>
        5.6937211751937866e-01 -8.4693008661270142e-01</leafValues></_></weakClassifiers></stage1>
</opencv_storage>
